<?xml version="1.0" encoding="UTF-8" standalone="yes"?>
<PMML xmlns="http://www.dmg.org/PMML-4_3" xmlns:data="http://jpmml.org/jpmml-model/InlineTable" version="4.3">
	<Header>
		<Application name="JPMML-SkLearn" version="1.5.8"/>
		<Timestamp>2019-01-31T06:23:25Z</Timestamp>
	</Header>
	<MiningBuildTask>
		<Extension>PMMLPipeline(steps=[('classifier', DecisionTreeClassifier(class_weight=None, criterion='gini', max_depth=None,
            max_features=None, max_leaf_nodes=None,
            min_impurity_decrease=0.0, min_impurity_split=None,
            min_samples_leaf=1, min_samples_split=2,
            min_weight_fraction_leaf=0.0, presort=False, random_state=None,
            splitter='best'))])</Extension>
	</MiningBuildTask>
	<DataDictionary>
		<DataField name="Species" optype="categorical" dataType="string">
			<Value value="Iris-setosa"/>
			<Value value="Iris-versicolor"/>
			<Value value="Iris-virginica"/>
		</DataField>
		<DataField name="Petal.Length" optype="continuous" dataType="float"/>
		<DataField name="Petal.Width" optype="continuous" dataType="float"/>
		<DataField name="Sepal.Length" optype="continuous" dataType="float"/>
		<DataField name="Sepal.Width" optype="continuous" dataType="float"/>
	</DataDictionary>
	<TransformationDictionary>
		<DerivedField name="double(Petal.Width)" optype="continuous" dataType="double">
			<FieldRef field="Petal.Width"/>
		</DerivedField>
		<DerivedField name="double(Petal.Length)" optype="continuous" dataType="double">
			<FieldRef field="Petal.Length"/>
		</DerivedField>
		<DerivedField name="double(Sepal.Length)" optype="continuous" dataType="double">
			<FieldRef field="Sepal.Length"/>
		</DerivedField>
		<DerivedField name="double(Sepal.Width)" optype="continuous" dataType="double">
			<FieldRef field="Sepal.Width"/>
		</DerivedField>
	</TransformationDictionary>
	<TreeModel functionName="classification" missingValueStrategy="nullPrediction" splitCharacteristic="multiSplit">
		<MiningSchema>
			<MiningField name="Species" usageType="target"/>
			<MiningField name="Petal.Width"/>
			<MiningField name="Petal.Length"/>
			<MiningField name="Sepal.Length"/>
			<MiningField name="Sepal.Width"/>
		</MiningSchema>
		<Output>
			<OutputField name="probability(Iris-setosa)" optype="continuous" dataType="double" feature="probability" value="Iris-setosa"/>
			<OutputField name="probability(Iris-versicolor)" optype="continuous" dataType="double" feature="probability" value="Iris-versicolor"/>
			<OutputField name="probability(Iris-virginica)" optype="continuous" dataType="double" feature="probability" value="Iris-virginica"/>
		</Output>
		<Node>
			<True/>
			<Node score="Iris-setosa" recordCount="42.0">
				<SimplePredicate field="double(Petal.Width)" operator="lessOrEqual" value="0.75"/>
				<ScoreDistribution value="Iris-setosa" recordCount="42.0"/>
				<ScoreDistribution value="Iris-versicolor" recordCount="0.0"/>
				<ScoreDistribution value="Iris-virginica" recordCount="0.0"/>
			</Node>
			<Node>
				<SimplePredicate field="double(Petal.Width)" operator="lessOrEqual" value="1.75"/>
				<Node>
					<SimplePredicate field="double(Petal.Length)" operator="lessOrEqual" value="4.949999809265137"/>
					<Node score="Iris-versicolor" recordCount="39.0">
						<SimplePredicate field="double(Petal.Width)" operator="lessOrEqual" value="1.6500000953674316"/>
						<ScoreDistribution value="Iris-setosa" recordCount="0.0"/>
						<ScoreDistribution value="Iris-versicolor" recordCount="39.0"/>
						<ScoreDistribution value="Iris-virginica" recordCount="0.0"/>
					</Node>
					<Node score="Iris-virginica" recordCount="1.0">
						<True/>
						<ScoreDistribution value="Iris-setosa" recordCount="0.0"/>
						<ScoreDistribution value="Iris-versicolor" recordCount="0.0"/>
						<ScoreDistribution value="Iris-virginica" recordCount="1.0"/>
					</Node>
				</Node>
				<Node score="Iris-virginica" recordCount="3.0">
					<SimplePredicate field="double(Petal.Width)" operator="lessOrEqual" value="1.5499999523162842"/>
					<ScoreDistribution value="Iris-setosa" recordCount="0.0"/>
					<ScoreDistribution value="Iris-versicolor" recordCount="0.0"/>
					<ScoreDistribution value="Iris-virginica" recordCount="3.0"/>
				</Node>
				<Node score="Iris-versicolor" recordCount="2.0">
					<SimplePredicate field="double(Sepal.Length)" operator="lessOrEqual" value="6.949999809265137"/>
					<ScoreDistribution value="Iris-setosa" recordCount="0.0"/>
					<ScoreDistribution value="Iris-versicolor" recordCount="2.0"/>
					<ScoreDistribution value="Iris-virginica" recordCount="0.0"/>
				</Node>
				<Node score="Iris-virginica" recordCount="1.0">
					<True/>
					<ScoreDistribution value="Iris-setosa" recordCount="0.0"/>
					<ScoreDistribution value="Iris-versicolor" recordCount="0.0"/>
					<ScoreDistribution value="Iris-virginica" recordCount="1.0"/>
				</Node>
			</Node>
			<Node>
				<SimplePredicate field="double(Petal.Length)" operator="lessOrEqual" value="4.850000381469727"/>
				<Node score="Iris-virginica" recordCount="2.0">
					<SimplePredicate field="double(Sepal.Width)" operator="lessOrEqual" value="3.0999999046325684"/>
					<ScoreDistribution value="Iris-setosa" recordCount="0.0"/>
					<ScoreDistribution value="Iris-versicolor" recordCount="0.0"/>
					<ScoreDistribution value="Iris-virginica" recordCount="2.0"/>
				</Node>
				<Node score="Iris-versicolor" recordCount="1.0">
					<True/>
					<ScoreDistribution value="Iris-setosa" recordCount="0.0"/>
					<ScoreDistribution value="Iris-versicolor" recordCount="1.0"/>
					<ScoreDistribution value="Iris-virginica" recordCount="0.0"/>
				</Node>
			</Node>
			<Node score="Iris-virginica" recordCount="35.0">
				<True/>
				<ScoreDistribution value="Iris-setosa" recordCount="0.0"/>
				<ScoreDistribution value="Iris-versicolor" recordCount="0.0"/>
				<ScoreDistribution value="Iris-virginica" recordCount="35.0"/>
			</Node>
		</Node>
	</TreeModel>
</PMML>
